6 100
<unk>	0.013301313854753971 -0.003456137841567397 -0.01051865890622139 -0.00433256383985281 0.003322962671518326 0.0019641180988401175 -0.005120930261909962 -0.0031286790035665035 -0.004270423203706741 -0.006698650773614645 -0.010511061176657677 0.008294036611914635 0.005139380227774382 -0.009289935231208801 0.004460450261831284 -0.010111222043633461 0.004921618849039078 0.0034273515921086073 -0.006247377954423428 -0.0027854926884174347 -0.005126431584358215 0.00801771692931652 -0.003650282509624958 -0.005990333389490843 -0.006156242452561855 0.007424083538353443 -0.009542718529701233 -0.010050110518932343 0.008237279951572418 0.012227916158735752 -0.0071037341840565205 0.009930357336997986 -0.007852275855839252 -0.013463440351188183 0.0023747384548187256 0.009781911037862301 -0.0025680046528577805 -0.003143243957310915 0.007268571760505438 0.00579593563452363 0.004228028003126383 -0.01106011401861906 -0.010354453697800636 0.0022080247290432453 -0.007150168064981699 -0.004527932032942772 -0.008753598667681217 -0.009508144110441208 0.006261987611651421 0.002970956265926361 0.00708989892154932 -0.0042234789580106735 -0.0026920693926513195 0.00818320456892252 -0.005279574543237686 0.009543167427182198 -0.008244847878813744 0.011171678081154823 0.010715438053011894 -0.004544753581285477 0.003722465829923749 0.004825278650969267 -0.00597458565607667 -0.010343874804675579 -0.010379288345575333 -0.013814873993396759 0.0054603759199380875 -0.004389984533190727 -0.004067573230713606 0.0034184125252068043 0.005219436250627041 -0.007455737330019474 0.010209031403064728 -0.004452638793736696 0.008095369674265385 0.00880357250571251 0.008411185815930367 0.004444421734660864 -0.01131800189614296 0.004767364356666803 0.004220703151077032 -0.005279287230223417 0.012006289325654507 -0.007752877660095692 -0.011920529417693615 -0.004060585983097553 -0.008484144695103168 0.010774197988212109 -0.010949701070785522 -0.0018849822226911783 0.004555355291813612 -0.0039197239093482494 0.011360393837094307 0.0041352007538080215 -0.009329584427177906 -0.0022116899490356445 0.011487673036754131 -0.0057417177595198154 0.005849556066095829 -0.0086526433005929 
the	0.0025322928559035063 0.00017859367653727531 -0.001147962873801589 -0.002201497321948409 0.002742265583947301 0.004950338043272495 -0.007219549268484116 -0.0003516178112477064 -0.005106939002871513 -0.008977138437330723 -0.003768619615584612 0.008359263651072979 0.005172346718609333 -0.0066270069219172 0.008065945468842983 -0.0004913664888590574 0.00475066713988781 0.003858471056446433 -0.002071868162602186 -0.008393500931560993 -0.002384807216003537 0.005732630379498005 -0.007831945084035397 -0.004283040761947632 -0.004639694467186928 0.00378309260122478 -0.005644176620990038 -0.004157870076596737 0.007016593590378761 0.006794625893235207 -0.008309709839522839 0.009275399148464203 0.0010536995250731707 -0.005512172356247902 0.00011432473547756672 0.002750714775174856 -0.003184917848557234 -0.0006338329985737801 0.0040674409829080105 0.0005482826381921768 0.005812064744532108 -0.008320506662130356 -0.0012799145188182592 0.004574022721499205 -0.0014539766125380993 -0.006803313735872507 -0.008662311360239983 -0.005702241323888302 0.0041505638509988785 0.005311258137226105 0.004056429956108332 -0.006577617488801479 -0.00033693108707666397 0.006589220371097326 -0.008162910118699074 0.0024233758449554443 -0.0005783622618764639 0.008123690262436867 0.008516942150890827 -0.0023778527975082397 -0.0011663115583360195 0.004360106773674488 -0.00863976962864399 -0.0011331932619214058 -0.0034197845961898565 -0.008603144437074661 0.00399515638127923 -0.0027943740133196115 -0.004331578500568867 0.006807792000472546 0.0048778364434838295 -0.007665699813514948 0.007231541909277439 -0.0026775484438985586 0.0011986156459897757 0.004843964707106352 -0.0006644963286817074 0.00580402510240674 -0.0016028792597353458 0.007548484019935131 0.008466091006994247 -0.004672344774007797 0.0033837787341326475 -0.00415625236928463 -0.0007149740122258663 -0.001068438170477748 -0.001474302727729082 0.002507616300135851 -0.0068322764709591866 -0.0075552212074398994 0.0005546065513044596 0.0007985499687492847 0.00885126180946827 0.0024858317337930202 -0.008809167891740799 -0.0009925917256623507 0.00032665045000612736 -0.0013942774385213852 0.0027408613823354244 -0.004125799983739853 
something	-0.001724546542391181 0.0015830602496862411 0.0008436209755018353 -0.003676381893455982 0.0032037501223385334 0.004729555454105139 -0.0013928103726357222 4.82386676594615e-05 -0.003770927432924509 -0.0028363154269754887 0.001169667229987681 0.0011645128251984715 -0.0006428170017898083 -0.006137887015938759 0.0004975900519639254 -0.0027967451605945826 0.0021158410236239433 0.001059567672200501 7.129285950213671e-05 0.0029170168563723564 0.0004067061236128211 0.005729347933083773 -0.0009415238164365292 -0.0046746437437832355 0.003454171819612384 0.0032796780578792095 -0.0008286681259050965 0.0036640914622694254 0.0004925660323351622 -0.0009709491860121489 8.011376485228539e-05 -3.921007737517357e-05 0.0004362110048532486 -0.001141692977398634 -0.00014639459550380707 -0.002100042998790741 -0.0007284707389771938 -0.0036044027656316757 -0.0019134158501401544 0.0019597047939896584 -0.000982784666121006 0.0027580903843045235 0.0020610534120351076 0.005267462693154812 -0.0008862855611369014 -0.00029869144782423973 -0.0011823129607364535 0.0034827482886612415 0.0011445963755249977 -0.0009730332531034946 -0.0026308270171284676 -0.005573473405092955 -0.0019666668958961964 0.0013380983145907521 0.001029430772177875 0.004246767144650221 0.0016944381641224027 -7.382465992122889e-05 0.002811373444274068 0.001994556747376919 0.005876519717276096 0.0009515228448435664 -0.0010530579602345824 -0.0006861906731501222 -0.00485573522746563 0.002073965035378933 0.00010403443593531847 -0.0015584563370794058 0.0017029482405632734 0.005168507806956768 -0.000882491935044527 -0.0008701018523424864 0.004943691659718752 -0.002570614917203784 0.006098510697484016 0.0015598874306306243 0.0007716817781329155 -0.001659391913563013 -0.004422485828399658 -0.0013951186556369066 0.005524657666683197 -0.002441885881125927 -0.001541414181701839 -0.002863616682589054 -0.0009043221361935139 -0.003121028421446681 0.003564995713531971 -0.001283161691389978 0.002868513111025095 -0.001631734543479979 -0.00061663833912462 0.003080599242821336 0.0031592296436429024 0.0033925711177289486 -0.001878088340163231 -0.0034953183494508266 -0.004390004090964794 -0.004762689583003521 0.0030737905763089657 0.00179998017847538 
mat	0.016867073252797127 -0.016207385808229446 -0.016314081847667694 -0.017832988873124123 0.005294016096740961 0.0009705087286420166 -0.015415558591485023 -0.01655772142112255 -0.012263068929314613 -0.009891162626445293 -0.013445109128952026 0.01637827605009079 0.006960245314985514 -0.017294183373451233 0.016723942011594772 -0.015611901879310608 0.005816291086375713 0.014592965133488178 -0.010140232741832733 -0.017623048275709152 -0.01783394254744053 0.015664078295230865 -0.013072287663817406 -0.02037540264427662 -0.014068822376430035 0.015657074749469757 -0.02027740888297558 -0.017513323575258255 0.01452426053583622 0.01712700165808201 -0.012061909772455692 0.012394091114401817 -0.019028352573513985 -0.009678061120212078 0.014275209978222847 0.011061503551900387 -0.017922813072800636 -0.013228277675807476 0.013574706390500069 0.007544223219156265 0.005523168947547674 -0.013752233237028122 -0.00728319538757205 0.008154263719916344 -0.01171302143484354 -0.016077395528554916 -0.012730943970382214 -0.011830314062535763 0.0109877809882164 0.017591767013072968 0.014484443701803684 -0.017752746120095253 -0.01680116541683674 0.01870698295533657 -0.010692955926060677 0.016304893419146538 -0.012524743564426899 0.015128429047763348 0.016208887100219727 -0.012977104634046555 0.01472657360136509 0.012425067834556103 -0.015315731056034565 -0.012584803625941277 -0.01886798068881035 -0.012260576710104942 0.01238342560827732 -0.012041809968650341 -0.010963472537696362 0.016553333029150963 0.013423759490251541 -0.016561701893806458 0.017252152785658836 -0.018253125250339508 0.011377189308404922 0.019805142655968666 0.02103297784924507 0.013155436143279076 -0.012187971733510494 0.015323387458920479 0.018853899091482162 -0.017278632149100304 0.016407929360866547 -0.014540618285536766 -0.013699336908757687 -0.009856278076767921 -0.010699784383177757 0.018542123958468437 -0.014499318785965443 -0.010168111883103848 0.014993004500865936 -0.017442280426621437 0.013566256500780582 0.015275394544005394 -0.019618671387434006 -0.011814502999186516 0.0162347424775362 -0.019173167645931244 0.01935109682381153 -0.016355685889720917 
on	0.005758315324783325 -0.008256562054157257 -0.013170097023248672 -0.009937597438693047 0.0007203577551990747 0.0006045250920578837 -0.009261547587811947 -0.009163946844637394 -0.011718306690454483 -0.008899214677512646 -0.005556988064199686 0.011085727252066135 0.00200499570928514 -0.0066656796261668205 0.0069992439821362495 -0.015046032145619392 0.004050146322697401 0.007056854199618101 -0.006205725483596325 -0.011249617673456669 -0.011359980329871178 0.009156700223684311 -0.008886110037565231 -0.013626753352582455 -0.008986844681203365 0.014938460662961006 -0.009641176089644432 -0.010888966731727123 0.011417779140174389 0.007221464067697525 -0.009660896845161915 0.006042066030204296 -0.01058338861912489 -0.007665808778256178 0.00911109521985054 0.012010334990918636 -0.012939047999680042 -0.00911928154528141 0.013621051795780659 0.003431877586990595 0.00042158481664955616 -0.011792786419391632 -0.008207333274185658 0.006780153606086969 -0.012826068326830864 -0.009992222301661968 -0.008131849579513073 -0.011434415355324745 0.006957069970667362 0.01261849794536829 0.004683755338191986 -0.0137323047965765 -0.013759820722043514 0.011709620244801044 -0.013586490415036678 0.014004209078848362 -0.009451464749872684 0.00749919842928648 0.005022783763706684 -0.010771218687295914 0.00570081127807498 0.011132663115859032 -0.008471302688121796 -0.008531132712960243 -0.010663425549864769 -0.00808398611843586 0.008784465491771698 -0.0077330078929662704 -0.007083222270011902 0.010075628757476807 0.007072946988046169 -0.008639770559966564 0.009363413788378239 -0.01071932539343834 0.004710958804935217 0.012449108064174652 0.013279199600219727 0.0116141801699996 -0.01381533220410347 0.009455863386392593 0.010904508642852306 -0.010369915515184402 0.011492314748466015 -0.007760003674775362 -0.007975871674716473 -0.011855454184114933 -0.014468722976744175 0.01058646384626627 -0.005887037143111229 -0.00859495997428894 0.006236561108380556 -0.010890219360589981 0.009701861999928951 0.013475577346980572 -0.013117091730237007 -0.013996689580380917 0.01496260054409504 -0.0146019970998168 0.010261079296469688 -0.009670156054198742 
cat	0.00896824523806572 -0.015621639788150787 -0.012758394703269005 -0.011722180061042309 0.0012437879340723157 0.0007086788536980748 -0.011815273202955723 -0.004680621437728405 -0.009236781857907772 -0.007050598040223122 -0.008617490530014038 0.006871380377560854 0.00415764981880784 -0.0077748289331793785 0.0037194411270320415 -0.014069763943552971 -3.5539851523935795e-05 0.012386910617351532 -0.0170713160187006 -0.006640010513365269 -0.012615257874131203 0.006790192797780037 -0.012782847508788109 -0.006505768746137619 -0.010495896451175213 0.014131883159279823 -0.014669516123831272 -0.004498557187616825 0.01548703107982874 0.007415744476020336 -0.01323977205902338 0.0017065922729671001 -0.004248555283993483 -0.003436231752857566 0.003756210906431079 0.007376651745289564 -0.01250255387276411 -0.00911719724535942 0.007347957231104374 0.010489203967154026 0.00226232479326427 -0.010523573495447636 -0.0027065500617027283 0.002503560855984688 -0.0041414168663322926 -0.009956332854926586 -0.007434633560478687 -0.01115125510841608 0.003386082360520959 0.014674405567348003 0.009591483511030674 -0.012194156646728516 -0.009671359322965145 0.009221549145877361 -0.013736029155552387 0.004226377233862877 -0.01089878287166357 0.010734731331467628 0.011721490882337093 -0.008550141006708145 0.007203599903732538 0.009806448593735695 -0.010889628902077675 -0.00408968236297369 -0.013537644408643246 -0.0054185171611607075 0.006422979757189751 -0.0020678224973380566 -0.003473527729511261 0.013500237837433815 0.003534226678311825 -0.004261933732777834 0.006157843861728907 -0.01793973334133625 0.010612467303872108 0.009331594221293926 0.007918274030089378 0.007676588371396065 -0.011622011661529541 0.01309659332036972 0.009253541938960552 -0.012292934581637383 0.008203783072531223 -0.01705991104245186 -0.006361056584864855 -0.0141154695302248 -0.010200325399637222 0.008465997874736786 -0.011424240656197071 -0.010006804019212723 0.008877251297235489 -0.011222796514630318 0.003085302421823144 0.006881549023091793 -0.005523283500224352 -0.011391151696443558 0.007551036309450865 -0.015410007908940315 0.010816946625709534 -0.015196342952549458 
