6 100
<unk>	-9.197668987326324e-05 -0.0028330511413514614 -0.0034314775839447975 0.01037534512579441 0.014401277527213097 0.009393209591507912 0.008642185479402542 0.007042231969535351 0.009144417941570282 0.00029865390388295054 -0.010061056353151798 -0.013166192919015884 0.009236887097358704 0.0008533382206223905 -0.006925931200385094 0.0007651092601008713 0.0019400818273425102 0.008629567921161652 -0.013477073051035404 -0.006510804407298565 0.005305638536810875 0.0010451144771650434 0.008133739233016968 0.006031941156834364 0.0027536407578736544 -0.0069432565942406654 0.0019281645072624087 0.010134626179933548 -0.009828382171690464 -0.00743286544457078 -0.005799735430628061 0.0006971477996557951 -0.00455837044864893 0.009600769728422165 0.0008116947719827294 -0.00785208959132433 -0.006854386534541845 -0.0006619253545068204 0.009889105334877968 -0.002652140334248543 -0.009943302720785141 0.0022279720287770033 0.0018519976874813437 0.002723529003560543 0.0017161115538328886 -0.002137318253517151 0.011536938138306141 0.00863622035831213 0.005879153963178396 0.0019056431483477354 -0.010698662139475346 0.010135548189282417 -0.002527519129216671 0.009275456890463829 -0.002264980925247073 -0.0013859837781637907 -0.008381014689803123 0.00816374272108078 0.012326043099164963 -0.005705303978174925 0.012125681154429913 -0.0053883870132267475 -0.01353021152317524 -0.007950183935463428 -0.0007946540135890245 -0.006302808411419392 0.009185897186398506 0.001960029127076268 0.0015641648788005114 -0.0032998877577483654 0.0017670074012130499 0.006522787734866142 0.0018166671507060528 -0.0003821082937065512 -0.0019362085731700063 -0.007149490062147379 0.020549416542053223 -0.006873356644064188 0.008521875366568565 -0.00677695544436574 -0.009047497063875198 0.005797085352241993 0.0014079880202189088 0.0020665712654590607 0.0055365185253322124 0.00025578035274520516 0.01226869598031044 0.008971433155238628 0.0023238498251885176 0.0028961598873138428 0.008238023146986961 -0.009010685607790947 -0.011468026787042618 -0.0012639528140425682 0.002118075033649802 0.0027620720211416483 -0.0027583218179643154 -0.0075029246509075165 -0.007352715823799372 -0.005152061581611633 
the	-0.003301024902611971 0.0039028676692396402 -0.0017677417490631342 0.011074977926909924 0.005530352238565683 0.010363222099840641 0.003900060895830393 0.005137310363352299 0.007943662814795971 0.007396644446998835 -0.00211385078728199 -0.005395198706537485 0.009610083885490894 -0.007763478439301252 -0.002047776710242033 -0.0030745775438845158 -2.4203953216783702e-05 0.00724049424752593 -0.0087586035951972 -0.0069428058341145515 0.009490450844168663 -0.009547799825668335 0.008565912023186684 0.011326823383569717 0.008225280791521072 -0.0056459978222846985 0.001322170952335 0.0013769824290648103 -0.0013762552989646792 -0.011775280348956585 -0.011754951439797878 -0.011081338860094547 -0.004994662944227457 0.0029774203430861235 0.003386016469448805 -0.005930979270488024 -0.008621379733085632 0.0005498488899320364 0.009102731011807919 -0.003504650667309761 -0.005469986237585545 -0.004510199651122093 -0.009977725334465504 -0.0012301012175157666 -0.008942884393036366 -0.0006369753391481936 0.00994506012648344 0.009490487165749073 0.009937332943081856 -0.007095021661370993 -0.013060558587312698 0.005777162034064531 -0.0032893605530261993 0.005071371328085661 0.004527386277914047 0.008948549628257751 -0.008065053261816502 0.0005950508057139814 0.00693753594532609 -0.01128900982439518 0.010177863761782646 -0.011469953693449497 -0.008731341920793056 -0.010031829588115215 0.0010321662994101644 -0.012507442384958267 0.0051158759742975235 -0.000678638753015548 0.007993189617991447 -0.0031018159352242947 -0.007947188802063465 0.008446129970252514 0.005752328783273697 0.0014617786509916186 0.0071508982218801975 -0.0010541003430262208 0.010080569423735142 -0.011656798422336578 0.00586805259808898 -0.007833259180188179 -0.004233413375914097 0.012136002071201801 -0.0009474421385675669 -0.006887577474117279 0.006402374245226383 0.0049233268946409225 0.005723932757973671 0.005994637031108141 -0.00034822634188458323 -0.0007155619096010923 0.010197881609201431 -0.004295594524592161 -0.006858084350824356 -0.004600705578923225 0.002887122333049774 -0.0006982069462537766 -0.0022852804977446795 -0.008147161453962326 -0.006070403847843409 -0.010944750159978867 
something	-0.0042734709568321705 0.0009555229335092008 -0.00407163193449378 0.0013647619634866714 -0.002582272980362177 -0.0013640424003824592 0.003385907970368862 0.0005512813804671168 -0.0010276205139234662 0.0006492211250588298 0.0005425120471045375 0.0005596305709332228 0.001700639957562089 -0.0024363219272345304 0.002535428386181593 -0.002862031338736415 0.0015999901806935668 0.0032766410149633884 0.0034822062589228153 0.003204337088391185 0.0015303581021726131 -0.0035483355168253183 -0.003154898062348366 -0.0034532316494733095 -0.0026294896379113197 -0.001006909180432558 0.00131142174359411 -0.004310141317546368 -0.00039923866279423237 -0.004926144611090422 -0.004483097232878208 -0.003244452178478241 0.0014394148020073771 -0.002129437867552042 -0.002727621467784047 0.002074030926451087 0.001134876161813736 0.0019269095500931144 -0.003635245840996504 0.0026378000620752573 0.003905865363776684 -0.0008601523004472256 0.0015813912032172084 -0.004404995124787092 0.0012884857133030891 0.0003763240238185972 0.0001847535459091887 -0.003489101305603981 -0.0017609440255910158 0.0005815861513838172 0.0042865220457315445 -0.002043728483840823 -0.003982087131589651 0.004386757500469685 -0.0005338387563824654 -0.00020216523262206465 -0.004752250388264656 -0.004131447058171034 -0.002063451102003455 -0.0020201222505420446 7.101338997017592e-05 0.004976940806955099 0.00020776534802280366 -0.0017314646393060684 0.00126818404532969 0.0034771787468343973 0.001840231823734939 -0.0012227260740473866 0.0040470329113304615 -0.002905892441049218 -0.002561975969001651 -0.0011181607842445374 -0.002601632848381996 0.004990538582205772 5.3927131375530735e-05 0.0041570039466023445 -0.0011370285646989942 0.0039494819939136505 -0.0010519137140363455 -0.001827506348490715 6.1738519434584305e-06 0.0016632508486509323 -0.00307417381554842 -0.001894821529276669 -0.004137131851166487 -0.00017199144349433482 0.00127656280528754 0.0007336826529353857 -0.0004894951125606894 -0.002509512472897768 -0.004650954622775316 -0.0032675452530384064 -0.00010309852223144844 0.003073911415413022 0.004455144517123699 -0.004959951154887676 -0.0027924783062189817 0.00017791157006286085 -0.0029646523762494326 -0.0031051726546138525 
mat	-0.0020946336444467306 -0.004079476464539766 -0.010567037388682365 0.0037701844703406096 0.013226263225078583 0.008474358357489109 0.0020477203652262688 0.009677408263087273 0.006306466180831194 0.005742769688367844 -0.007756717968732119 -0.0024102176539599895 0.008250902406871319 0.00039628613740205765 -0.015938105061650276 -0.0003517951408866793 0.0006539822206832469 0.006734979338943958 -0.014098715037107468 -0.002475117566064 0.011104523204267025 0.0023816560860723257 0.0032770975958555937 0.009442079812288284 0.009552874602377415 -0.009586421772837639 0.016585446894168854 0.005473192315548658 -0.007584976963698864 -0.009037706069648266 -0.009458123706281185 -0.002513507381081581 -0.01448278222233057 0.006009554024785757 0.01291435956954956 -0.00359336007386446 -0.00732185086235404 -0.0013330213259905577 0.0066953059285879135 -0.009860716760158539 -0.007480152416974306 0.009673734195530415 0.00611852714791894 0.008294789120554924 0.002655318472534418 -0.017211146652698517 0.0027399922255426645 0.003394671017304063 0.007933261804282665 -0.001098175416700542 -0.011012338101863861 0.014153169468045235 -0.008893501944839954 0.005397142376750708 -0.007174832280725241 -0.0007688225596211851 -0.018208341673016548 0.01797896809875965 0.01871858537197113 -0.005891523323953152 0.00644108047708869 -0.008848664350807667 -0.01023812871426344 -0.002262342721223831 -0.01190220844000578 -0.0020659519359469414 0.008526851423084736 0.008696233853697777 0.011959672905504704 -0.006277119275182486 0.007342895492911339 0.009282269515097141 0.008092174306511879 0.005028753541409969 -0.004447842948138714 -0.0060633085668087006 0.009226754307746887 -0.01149203721433878 0.00741583900526166 -0.012870579957962036 -0.00890838261693716 0.001743803615681827 0.0076772370375692844 0.010662675835192204 0.004531713202595711 0.004026287235319614 0.011311136186122894 0.0071955956518650055 0.01133244764059782 0.0013684830628335476 0.0023608787450939417 -0.013353748247027397 -0.017772570252418518 -0.000305220833979547 0.010569404810667038 0.008443569764494896 -0.01530805230140686 -0.005358958151191473 -0.010705947875976562 -0.005348839331418276 
on	-0.006310884840786457 0.003288509091362357 -0.004186808131635189 0.010152366943657398 0.00922025553882122 0.011109990067780018 0.0032505043782293797 0.012724515981972218 0.010313073173165321 0.004872576333582401 -0.008407680317759514 -0.009104840457439423 0.0020839511416852474 -0.006443906109780073 -0.00853885617107153 -0.0016972701996564865 3.208551788702607e-06 0.008585727773606777 -0.002740866504609585 -0.010582623071968555 0.013529196381568909 -0.010031326673924923 0.010178772732615471 0.008012380450963974 0.002830151468515396 -0.0034963982179760933 0.0030552265234291553 0.0028743487782776356 -0.0017749371472746134 -0.004311686847358942 -0.007570832036435604 -0.0060216342099010944 -0.0004655166994780302 0.006782893091440201 -0.00040851981611922383 -0.008040396496653557 -0.010490477085113525 0.00022911070846021175 0.0058781420812010765 -0.006541903596371412 -0.008627286180853844 -0.004281238187104464 -0.008340766653418541 -0.0009790018666535616 -0.010460524819791317 -0.00589683698490262 0.004938345402479172 0.00679450947791338 0.008722216822206974 -0.00913794245570898 -0.011373862624168396 0.0021956718992441893 -0.007925069890916348 0.009338228963315487 0.003445086535066366 0.01301750261336565 -0.0026128008030354977 0.0010702165309339762 0.009009596891701221 -0.013506312854588032 0.005241965875029564 -0.006055563222616911 -0.002424901584163308 -0.007117664907127619 0.0014922826085239649 -0.012302331626415253 0.00588287552818656 0.0013523827074095607 0.00035459003993310034 -0.004771849140524864 -0.001737354788929224 0.004234990570694208 0.00373263843357563 0.0037293871864676476 0.0022946568205952644 -0.0017407371196895838 0.008299021050333977 -0.011639128439128399 0.01009366288781166 -0.002705211052671075 -0.0021464715246111155 0.005888989195227623 -0.0012126677902415395 -0.0033809125889092684 0.005399749614298344 -0.0012781397672370076 0.004178889561444521 0.00822807103395462 0.0012545885983854532 0.0017061240505427122 0.008489507250487804 -0.008659818209707737 -0.0034881574101746082 -0.002632042160257697 0.0006399367703124881 -0.001545587321743369 0.0008927833405323327 -0.009541233070194721 -0.00897183082997799 -0.012099796906113625 
cat	0.0018398164538666606 0.004979662597179413 0.004153738729655743 -0.004761557560414076 0.00044052579323761165 0.0018367440206930041 0.0008149196510203183 0.000886089401319623 -0.002837555715814233 0.004141882061958313 0.001842683064751327 0.004382815677672625 -0.0034449154045432806 -0.0046512288972735405 0.002037396188825369 0.001061092596501112 -1.5197239008557517e-05 0.002054639160633087 0.0038017043843865395 0.0016412220429629087 0.0026315071154385805 0.004289942793548107 -0.003846134524792433 -0.0023315371945500374 0.0019251859048381448 -0.0023602989967912436 0.000586516282055527 -0.002578507177531719 -0.000741252675652504 0.0033892688807100058 -0.002831163816154003 0.001921023358590901 0.002036308404058218 0.0016850251704454422 0.003081741975620389 0.0014300093753263354 0.0035313903354108334 0.002572467317804694 0.003401889931410551 -0.003893294371664524 -0.003488162998110056 9.715712803881615e-05 -0.00204421766102314 0.0026981662958860397 0.002078765071928501 0.003967945463955402 0.0047738393768668175 -0.002012405311688781 -0.003433674108237028 0.0014206666965037584 -0.0039811888709664345 0.0021954753901809454 0.0011826484696939588 -0.0008679120801389217 0.000925630156416446 0.00426488509401679 -0.0018534607952460647 0.0024211048148572445 -0.004281193949282169 0.0020099703688174486 0.003981197252869606 -0.004761618562042713 -0.0016551039880141616 0.0024416986852884293 0.002675080206245184 -0.003250816138461232 -0.004109978210180998 0.0046463049948215485 -0.0027342732064425945 0.0035110116004943848 -8.322943176608533e-05 0.002358801197260618 -0.002786694560199976 0.004259976092725992 0.00034407933708280325 -0.004880865104496479 -0.002883461769670248 -0.0024825367145240307 0.0049592237919569016 2.202449286414776e-05 -0.003493819385766983 -0.002950645051896572 0.0017574930097907782 0.004728840664029121 -0.002356428187340498 0.004509237594902515 0.002696316922083497 0.00084821751806885 -0.0027534966357052326 -0.00396689074113965 0.0024774668272584677 -0.0012362252455204725 0.004596869461238384 0.0038965940475463867 0.0028929992113262415 -0.0022853990085422993 1.1861628991027828e-05 0.003174855373799801 -0.0015349860768765211 -0.0033769169822335243 
